network unknown {
}
variable school {
    type discrete [ 17 ] { 人文与传播学院, 会计学院, 信电学院, 公共管理学院, 外国语学院, 工商管理学院, 旅游与城乡规划学院, 法学院, 环境学院, 管工学院, 经济学院, 统计与数学学院, 艺术与设计学院, 计算机与信息工程学院, 金融学院, 食品学院, 马克思主义学院 };
}
variable 世界 {
    type discrete [ 2 ] { 0, 1 };
}
variable 制度 {
    type discrete [ 2 ] { 0, 1 };
}
variable 历史 {
    type discrete [ 2 ] { 0, 1 };
}
variable 历年 {
    type discrete [ 2 ] { 0, 1 };
}
variable 发展 {
    type discrete [ 2 ] { 0, 1 };
}
variable 四级 {
    type discrete [ 2 ] { 0, 1 };
}
variable 基础 {
    type discrete [ 2 ] { 0, 1 };
}
variable 大学 {
    type discrete [ 2 ] { 0, 1 };
}
variable 年 {
    type discrete [ 2 ] { 0, 1 };
}
variable 报告 {
    type discrete [ 2 ] { 0, 1 };
}
variable 政治 {
    type discrete [ 2 ] { 0, 1 };
}
variable 教程 {
    type discrete [ 2 ] { 0, 1 };
}
variable 数学 {
    type discrete [ 2 ] { 0, 1 };
}
variable 文化 {
    type discrete [ 2 ] { 0, 1 };
}
variable 新版 {
    type discrete [ 2 ] { 0, 1 };
}
variable 新编 {
    type discrete [ 2 ] { 0, 1 };
}
variable 案例 {
    type discrete [ 2 ] { 0, 1 };
}
variable 真题 {
    type discrete [ 2 ] { 0, 1 };
}
variable 研究 {
    type discrete [ 2 ] { 0, 1 };
}
variable 管理 {
    type discrete [ 2 ] { 0, 1 };
}
variable 级 {
    type discrete [ 2 ] { 0, 1 };
}
variable 考研 {
    type discrete [ 2 ] { 0, 1 };
}
variable 英语 {
    type discrete [ 2 ] { 0, 1 };
}
variable 英语六级 {
    type discrete [ 2 ] { 0, 1 };
}
variable 解析 {
    type discrete [ 2 ] { 0, 1 };
}
variable 详解 {
    type discrete [ 2 ] { 0, 1 };
}
variable 问题 {
    type discrete [ 2 ] { 0, 1 };
}
variable 阅读 {
    type discrete [ 2 ] { 0, 1 };
}
variable 雅思 {
    type discrete [ 2 ] { 0, 1 };
}
variable 题 {
    type discrete [ 2 ] { 0, 1 };
}
probability ( school ) {
    table 0.07049155638281851, 0.11950044988858982, 0.05852413372310805, 0.06897390646179036, 0.06986982193679935, 0.054388248060458846, 0.05901843191621645, 0.0583387719006924, 0.02543318671728074, 0.05653921754140713, 0.08420833124157666, 0.08089112696126324, 0.017169138801249647, 0.002494661193343966, 0.09859318100195788, 0.07260004711279654, 0.0029657891586504113 ;
}
probability ( 世界 | school ) {
    ( 人文与传播学院 ) 0.9903582776377781, 0.009641722362221978;
    ( 会计学院 ) 0.9910809500727097, 0.008919049927290354;
    ( 信电学院 ) 0.9912900032992412, 0.008709996700758825;
    ( 公共管理学院 ) 0.9913218744751133, 0.008678125524886624;
    ( 外国语学院 ) 0.9912120709666722, 0.008787929033327806;
    ( 工商管理学院 ) 0.9874325475717126, 0.01256745242828742;
    ( 旅游与城乡规划学院 ) 0.9889419616567428, 0.011058038343257214;
    ( 法学院 ) 0.9913947176805454, 0.008605282319454557;
    ( 环境学院 ) 0.9857273003340419, 0.014272699665958092;
    ( 管工学院 ) 0.9920087425722287, 0.007991257427771327;
    ( 经济学院 ) 0.9907823534806934, 0.009217646519306613;
    ( 统计与数学学院 ) 0.9906907910440635, 0.009309208955936411;
    ( 艺术与设计学院 ) 0.9835807467386415, 0.016419253261358523;
    ( 计算机与信息工程学院 ) 0.9922600619195047, 0.007739938080495356;
    ( 金融学院 ) 0.9888762680662724, 0.011123731933727626;
    ( 食品学院 ) 0.990531914893617, 0.009468085106382978;
    ( 马克思主义学院 ) 0.9973958333333334, 0.0026041666666666665;

}
probability ( 制度 | school ) {
    ( 人文与传播学院 ) 0.9985208721376136, 0.0014791278623863262;
    ( 会计学院 ) 0.9966715139764097, 0.0033284860235902407;
    ( 信电学院 ) 0.999670075882547, 0.0003299241174529858;
    ( 公共管理学院 ) 0.9968086893231062, 0.0031913106768937907;
    ( 外国语学院 ) 0.9990604101033549, 0.0009395898966451114;
    ( 工商管理学院 ) 0.9985089463220675, 0.0014910536779324055;
    ( 旅游与城乡规划学院 ) 0.998037034613623, 0.0019629653863770203;
    ( 法学院 ) 0.9962269146753161, 0.0037730853246839215;
    ( 环境学院 ) 0.9992408138475555, 0.0007591861524445794;
    ( 管工学院 ) 0.999726794617854, 0.00027320538214602825;
    ( 经济学院 ) 0.9958268366504631, 0.0041731633495368245;
    ( 统计与数学学院 ) 0.9970878884804507, 0.0029121115195493387;
    ( 艺术与设计学院 ) 0.9988753936122358, 0.0011246063877642825;
    ( 计算机与信息工程学院 ) 1.0, 0.0;
    ( 金融学院 ) 0.9976499157886491, 0.002350084211350907;
    ( 食品学院 ) 0.9998404255319149, 0.00015957446808510637;
    ( 马克思主义学院 ) 0.9973958333333334, 0.0026041666666666665;

}
probability ( 历史 | school ) {
    ( 人文与传播学院 ) 0.9979182644899748, 0.0020817355100252;
    ( 会计学院 ) 0.9990305380513815, 0.0009694619486185168;
    ( 信电学院 ) 0.9994721214120752, 0.0005278785879247773;
    ( 公共管理学院 ) 0.9970886288561671, 0.002911371143832932;
    ( 外国语学院 ) 0.9993920300668767, 0.0006079699331233073;
    ( 工商管理学院 ) 0.9991479693268958, 0.0008520306731042318;
    ( 旅游与城乡规划学院 ) 0.998691356409082, 0.0013086435909180135;
    ( 法学院 ) 0.9994042496855762, 0.0005957503144237771;
    ( 环境学院 ) 0.9993926510780443, 0.0006073489219556636;
    ( 管工学院 ) 0.9994535892357079, 0.0005464107642920565;
    ( 经济学院 ) 0.999312115931395, 0.0006878840686049711;
    ( 统计与数学学院 ) 0.999474865135819, 0.0005251348641810283;
    ( 艺术与设计学院 ) 0.9993252361673415, 0.0006747638326585695;
    ( 计算机与信息工程学院 ) 1.0, 0.0;
    ( 金融学院 ) 0.999569151227919, 0.00043084877208099956;
    ( 食品学院 ) 0.9996276595744681, 0.0003723404255319149;
    ( 马克思主义学院 ) 1.0, 0.0;

}
probability ( 历年 | school ) {
    ( 人文与传播学院 ) 0.9987947847047223, 0.0012052152952777473;
    ( 会计学院 ) 0.9947325900791727, 0.0052674099208272745;
    ( 信电学院 ) 0.9984823490597162, 0.0015176509402837347;
    ( 公共管理学院 ) 0.9973125804826157, 0.002687419517384245;
    ( 外国语学院 ) 0.9986182501519925, 0.0013817498480075167;
    ( 工商管理学院 ) 0.9980119284294234, 0.0019880715705765406;
    ( 旅游与城乡规划学院 ) 0.9989530851272655, 0.0010469148727344107;
    ( 法学院 ) 0.9982789435361091, 0.0017210564638909115;
    ( 环境学院 ) 0.998177953234133, 0.0018220467658669906;
    ( 管工学院 ) 0.9988388771258794, 0.0011611228741206202;
    ( 经济学院 ) 0.9980739246079061, 0.0019260753920939191;
    ( 统计与数学学院 ) 0.9982813768081348, 0.0017186231918651835;
    ( 艺术与设计学院 ) 0.9997750787224472, 0.0002249212775528565;
    ( 计算机与信息工程学院 ) 1.0, 0.0;
    ( 金融学院 ) 0.996788218244487, 0.003211781755512906;
    ( 食品学院 ) 0.9992553191489362, 0.0007446808510638298;
    ( 马克思主义学院 ) 1.0, 0.0;

}
probability ( 发展 | 制度, 历史, 年, 报告, 文化 ) {
    ( 0, 0, 0, 0, 0 ) 1.0, 0.0;
    ( 0, 0, 0, 0, 1 ) 0.0, 1.0;
    ( 0, 0, 0, 1, 0 ) 0.0, 1.0;
    ( 0, 0, 0, 1, 1 ) 0.5, 0.5;
    ( 0, 0, 1, 0, 0 ) 0.0, 1.0;
    ( 0, 0, 1, 0, 1 ) 0.5, 0.5;
    ( 0, 0, 1, 1, 0 ) 0.5, 0.5;
    ( 0, 0, 1, 1, 1 ) 0.5, 0.5;
    ( 0, 1, 0, 0, 0 ) 0.0, 1.0;
    ( 0, 1, 0, 0, 1 ) 0.5, 0.5;
    ( 0, 1, 0, 1, 0 ) 0.5, 0.5;
    ( 0, 1, 0, 1, 1 ) 0.5, 0.5;
    ( 0, 1, 1, 0, 0 ) 0.5, 0.5;
    ( 0, 1, 1, 0, 1 ) 0.5, 0.5;
    ( 0, 1, 1, 1, 0 ) 0.5, 0.5;
    ( 0, 1, 1, 1, 1 ) 0.5, 0.5;
    ( 1, 0, 0, 0, 0 ) 0.0, 1.0;
    ( 1, 0, 0, 0, 1 ) 0.5, 0.5;
    ( 1, 0, 0, 1, 0 ) 0.5, 0.5;
    ( 1, 0, 0, 1, 1 ) 0.5, 0.5;
    ( 1, 0, 1, 0, 0 ) 0.5, 0.5;
    ( 1, 0, 1, 0, 1 ) 0.5, 0.5;
    ( 1, 0, 1, 1, 0 ) 0.5, 0.5;
    ( 1, 0, 1, 1, 1 ) 0.5, 0.5;
    ( 1, 1, 0, 0, 0 ) 0.5, 0.5;
    ( 1, 1, 0, 0, 1 ) 0.5, 0.5;
    ( 1, 1, 0, 1, 0 ) 0.5, 0.5;
    ( 1, 1, 0, 1, 1 ) 0.5, 0.5;
    ( 1, 1, 1, 0, 0 ) 0.5, 0.5;
    ( 1, 1, 1, 0, 1 ) 0.5, 0.5;
    ( 1, 1, 1, 1, 0 ) 0.5, 0.5;
    ( 1, 1, 1, 1, 1 ) 0.5, 0.5;

}
probability ( 四级 | school ) {
    ( 人文与传播学院 ) 0.9968773967349622, 0.0031226032650378;
    ( 会计学院 ) 0.9954112134432057, 0.004588786556794312;
    ( 信电学院 ) 0.995249092708677, 0.004750907291322996;
    ( 公共管理学院 ) 0.9963047981635966, 0.0036952018364033367;
    ( 外国语学院 ) 0.9973470402918255, 0.002652959708174432;
    ( 工商管理学院 ) 0.9970178926441352, 0.002982107355864811;
    ( 旅游与城乡规划学院 ) 0.9949617221749657, 0.0050382778250343515;
    ( 法学院 ) 0.9949692195670881, 0.005030780432911895;
    ( 环境学院 ) 0.9921044640145764, 0.007895535985423625;
    ( 管工学院 ) 0.9970630421419302, 0.002936957858069804;
    ( 经济学院 ) 0.9949096578923232, 0.005090342107676786;
    ( 统计与数学学院 ) 0.997135628013558, 0.0028643719864419725;
    ( 艺术与设计学院 ) 0.9907782276203329, 0.009221772379667117;
    ( 计算机与信息工程学院 ) 1.0, 0.0;
    ( 金融学院 ) 0.9970623947358114, 0.0029376052641886335;
    ( 食品学院 ) 0.9952659574468085, 0.004734042553191489;
    ( 马克思主义学院 ) 0.9986979166666666, 0.0013020833333333333;

}
probability ( 基础 | school ) {
    ( 人文与传播学院 ) 0.9917826229867426, 0.008217377013257369;
    ( 会计学院 ) 0.9820003231539829, 0.017999676846017127;
    ( 信电学院 ) 0.9704387990762124, 0.02956120092378753;
    ( 公共管理学院 ) 0.9911539107552768, 0.008846089244723139;
    ( 外国语学院 ) 0.9906041010335489, 0.009395898966451113;
    ( 工商管理学院 ) 0.9870065322351604, 0.012993467764839534;
    ( 旅游与城乡规划学院 ) 0.9881567755021919, 0.011843224497808022;
    ( 法学院 ) 0.995101608525849, 0.004898391474151055;
    ( 环境学院 ) 0.9893713938657759, 0.010628606134224112;
    ( 管工学院 ) 0.981012225940851, 0.018987774059148966;
    ( 经济学院 ) 0.9883976887095295, 0.011602311290470513;
    ( 统计与数学学院 ) 0.9827182890151335, 0.01728171098486657;
    ( 艺术与设计学院 ) 0.9806567701304544, 0.019343229869545658;
    ( 计算机与信息工程学院 ) 0.9674922600619195, 0.032507739938080496;
    ( 金融学院 ) 0.9855078140300028, 0.014492185969997259;
    ( 食品学院 ) 0.9863297872340425, 0.013670212765957446;
    ( 马克思主义学院 ) 0.9921875, 0.0078125;

}
probability ( 大学 | 四级, 新版, 新编, 级, 英语六级 ) {
    ( 0, 0, 0, 0, 0 ) 1.0, 0.0;
    ( 0, 0, 0, 0, 1 ) 0.0, 1.0;
    ( 0, 0, 0, 1, 0 ) 0.0, 1.0;
    ( 0, 0, 0, 1, 1 ) 0.5, 0.5;
    ( 0, 0, 1, 0, 0 ) 0.0, 1.0;
    ( 0, 0, 1, 0, 1 ) 0.5, 0.5;
    ( 0, 0, 1, 1, 0 ) 0.5, 0.5;
    ( 0, 0, 1, 1, 1 ) 0.5, 0.5;
    ( 0, 1, 0, 0, 0 ) 0.0, 1.0;
    ( 0, 1, 0, 0, 1 ) 0.5, 0.5;
    ( 0, 1, 0, 1, 0 ) 0.5, 0.5;
    ( 0, 1, 0, 1, 1 ) 0.5, 0.5;
    ( 0, 1, 1, 0, 0 ) 0.5, 0.5;
    ( 0, 1, 1, 0, 1 ) 0.5, 0.5;
    ( 0, 1, 1, 1, 0 ) 0.5, 0.5;
    ( 0, 1, 1, 1, 1 ) 0.5, 0.5;
    ( 1, 0, 0, 0, 0 ) 0.0, 1.0;
    ( 1, 0, 0, 0, 1 ) 0.5, 0.5;
    ( 1, 0, 0, 1, 0 ) 0.5, 0.5;
    ( 1, 0, 0, 1, 1 ) 0.5, 0.5;
    ( 1, 0, 1, 0, 0 ) 0.5, 0.5;
    ( 1, 0, 1, 0, 1 ) 0.5, 0.5;
    ( 1, 0, 1, 1, 0 ) 0.5, 0.5;
    ( 1, 0, 1, 1, 1 ) 0.5, 0.5;
    ( 1, 1, 0, 0, 0 ) 0.5, 0.5;
    ( 1, 1, 0, 0, 1 ) 0.5, 0.5;
    ( 1, 1, 0, 1, 0 ) 0.5, 0.5;
    ( 1, 1, 0, 1, 1 ) 0.5, 0.5;
    ( 1, 1, 1, 0, 0 ) 0.5, 0.5;
    ( 1, 1, 1, 0, 1 ) 0.5, 0.5;
    ( 1, 1, 1, 1, 0 ) 0.5, 0.5;
    ( 1, 1, 1, 1, 1 ) 0.5, 0.5;

}
probability ( 年 | school ) {
    ( 人文与传播学院 ) 0.9984660896241919, 0.0015339103758080421;
    ( 会计学院 ) 0.9987073840685087, 0.0012926159314913556;
    ( 信电学院 ) 0.9992741669416034, 0.0007258330583965688;
    ( 公共管理学院 ) 0.9982643748950226, 0.001735625104977325;
    ( 外国语学院 ) 0.9995578400486376, 0.0004421599513624053;
    ( 工商管理学院 ) 0.9995029821073559, 0.0004970178926441351;
    ( 旅游与城乡规划学院 ) 0.9984296276908984, 0.0015703723091016163;
    ( 法学院 ) 0.9982789435361091, 0.0017210564638909115;
    ( 环境学院 ) 0.9989371393865776, 0.0010628606134224113;
    ( 管工学院 ) 0.9994535892357079, 0.0005464107642920565;
    ( 经济学院 ) 0.99862423186279, 0.0013757681372099423;
    ( 统计与数学学院 ) 0.9991406884040674, 0.0008593115959325918;
    ( 艺术与设计学院 ) 0.9993252361673415, 0.0006747638326585695;
    ( 计算机与信息工程学院 ) 0.9984520123839009, 0.0015479876160990713;
    ( 金融学院 ) 0.999138302455838, 0.0008616975441619991;
    ( 食品学院 ) 0.9992553191489362, 0.0007446808510638298;
    ( 马克思主义学院 ) 1.0, 0.0;

}
probability ( 报告 | school ) {
    ( 人文与传播学院 ) 0.9987947847047223, 0.0012052152952777473;
    ( 会计学院 ) 0.9989982226530942, 0.0010017773469058007;
    ( 信电学院 ) 0.9998020455295282, 0.00019795447047179148;
    ( 公共管理学院 ) 0.9967527014164941, 0.0032472985835059628;
    ( 外国语学院 ) 1.0, 0.0;
    ( 工商管理学院 ) 0.9987929565464356, 0.0012070434535643283;
    ( 旅游与城乡规划学院 ) 0.9976444415363476, 0.0023555584636524244;
    ( 法学院 ) 0.999205666247435, 0.000794333752565036;
    ( 环境学院 ) 0.9996963255390222, 0.0003036744609778318;
    ( 管工学院 ) 0.9996584932723175, 0.00034150672768253537;
    ( 经济学院 ) 0.9967440154086031, 0.0032559845913968633;
    ( 统计与数学学院 ) 0.9989497302716379, 0.0010502697283620566;
    ( 艺术与设计学院 ) 1.0, 0.0;
    ( 计算机与信息工程学院 ) 1.0, 0.0;
    ( 金融学院 ) 0.9985507814030002, 0.0014492185969997259;
    ( 食品学院 ) 0.9997872340425532, 0.0002127659574468085;
    ( 马克思主义学院 ) 1.0, 0.0;

}
probability ( 政治 | school ) {
    ( 人文与传播学院 ) 0.995179138818889, 0.004820861181110989;
    ( 会计学院 ) 0.9930521893682339, 0.006947810631766037;
    ( 信电学院 ) 0.9845595513032003, 0.015440448696799737;
    ( 公共管理学院 ) 0.992833547953642, 0.007166452046357986;
    ( 外国语学院 ) 0.994307190626209, 0.005692809373790969;
    ( 工商管理学院 ) 0.9944618006248225, 0.005538199375177506;
    ( 旅游与城乡规划学院 ) 0.9922790028135837, 0.007720997186416279;
    ( 法学院 ) 0.9956973588402728, 0.0043026411597272786;
    ( 环境学院 ) 0.991041603401154, 0.008958396598846037;
    ( 管工学院 ) 0.9909159210436446, 0.00908407895635544;
    ( 经济学院 ) 0.9944969274511603, 0.005503072548839769;
    ( 统计与数学学院 ) 0.9918842793717477, 0.008115720628252256;
    ( 艺术与设计学院 ) 0.9986504723346828, 0.001349527665317139;
    ( 计算机与信息工程学院 ) 0.9953560371517027, 0.0046439628482972135;
    ( 金融学院 ) 0.9936156045591634, 0.00638439544083663;
    ( 食品学院 ) 0.9857446808510638, 0.01425531914893617;
    ( 马克思主义学院 ) 0.99609375, 0.00390625;

}
probability ( 教程 | school ) {
    ( 人文与传播学院 ) 0.9944121836309849, 0.00558781636901501;
    ( 会计学院 ) 0.9879786718371304, 0.012021328162869608;
    ( 信电学院 ) 0.9917518970636754, 0.008248102936324645;
    ( 公共管理学院 ) 0.9930574995800907, 0.0069425004199093;
    ( 外国语学院 ) 0.9732493229425745, 0.026750677057425523;
    ( 工商管理学院 ) 0.9914086907128656, 0.008591309287134337;
    ( 旅游与城乡规划学院 ) 0.9890073938362887, 0.010992606163711314;
    ( 法学院 ) 0.9905341894485999, 0.009465810551400014;
    ( 环境学院 ) 0.9913452778621318, 0.008654722137868205;
    ( 管工学院 ) 0.9942626869749334, 0.005737313025066594;
    ( 经济学院 ) 0.9903696230395304, 0.009630376960469596;
    ( 统计与数学学院 ) 0.9934596839642909, 0.006540316035709171;
    ( 艺术与设计学院 ) 0.9930274403958614, 0.006972559604138551;
    ( 计算机与信息工程学院 ) 0.9984520123839009, 0.0015479876160990713;
    ( 金融学院 ) 0.9898554698210019, 0.01014453017899808;
    ( 食品学院 ) 0.9906382978723405, 0.009361702127659575;
    ( 马克思主义学院 ) 0.99609375, 0.00390625;

}
probability ( 数学 | school ) {
    ( 人文与传播学院 ) 0.9998904349731565, 0.00010956502684343158;
    ( 会计学院 ) 0.9962514137986751, 0.0037485862013249315;
    ( 信电学院 ) 0.9922137908281096, 0.007786209171890465;
    ( 公共管理学院 ) 0.9979844353619618, 0.0020155646380381836;
    ( 外国语学院 ) 0.9998894600121594, 0.00011053998784060133;
    ( 工商管理学院 ) 0.9954558364101108, 0.004544163589889236;
    ( 旅游与城乡规划学院 ) 0.9976444415363476, 0.0023555584636524244;
    ( 法学院 ) 1.0, 0.0;
    ( 环境学院 ) 0.9922563012450653, 0.00774369875493471;
    ( 管工学院 ) 0.9933747694829588, 0.006625230517041186;
    ( 经济学院 ) 0.9981197835458131, 0.001880216454186921;
    ( 统计与数学学院 ) 0.9929345491001098, 0.007065450899890199;
    ( 艺术与设计学院 ) 1.0, 0.0;
    ( 计算机与信息工程学院 ) 0.9969040247678018, 0.0030959752321981426;
    ( 金融学院 ) 0.9945556382437037, 0.005444361756296267;
    ( 食品学院 ) 0.9931382978723404, 0.006861702127659575;
    ( 马克思主义学院 ) 1.0, 0.0;

}
probability ( 文化 | school ) {
    ( 人文与传播学院 ) 0.9617070231182206, 0.038292976881779336;
    ( 会计学院 ) 0.9800937146550331, 0.019906285344966877;
    ( 信电学院 ) 0.990168261299901, 0.009831738700098977;
    ( 公共管理学院 ) 0.973293768545994, 0.026706231454005934;
    ( 外国语学院 ) 0.9815950920245399, 0.018404907975460124;
    ( 工商管理学院 ) 0.9783442203919341, 0.02165577960806589;
    ( 旅游与城乡规划学院 ) 0.9799123208794085, 0.020087679120591506;
    ( 法学院 ) 0.9710730125107566, 0.028926987489243397;
    ( 环境学院 ) 0.9839052535681749, 0.016094746431825083;
    ( 管工学院 ) 0.9902329075882795, 0.009767092411720512;
    ( 经济学院 ) 0.9819774374025497, 0.018022562597450244;
    ( 统计与数学学院 ) 0.9815725402205566, 0.018427459779443357;
    ( 艺术与设计学院 ) 0.9727845254161044, 0.027215474583895637;
    ( 计算机与信息工程学院 ) 0.9891640866873065, 0.010835913312693499;
    ( 金融学院 ) 0.9833144020994086, 0.016685597900591438;
    ( 食品学院 ) 0.987659574468085, 0.012340425531914894;
    ( 马克思主义学院 ) 0.9205729166666666, 0.07942708333333333;

}
probability ( 新版 | school ) {
    ( 人文与传播学院 ) 0.9998904349731565, 0.00010956502684343158;
    ( 会计学院 ) 0.999321376635967, 0.0006786233640329617;
    ( 信电学院 ) 0.9994061365885846, 0.0005938634114153745;
    ( 公共管理学院 ) 0.9996080846537148, 0.0003919153462852024;
    ( 外国语学院 ) 0.9998894600121594, 0.00011053998784060133;
    ( 工商管理学院 ) 0.999928997443908, 7.100255609201931e-05;
    ( 旅游与城乡规划学院 ) 0.9998691356409082, 0.00013086435909180134;
    ( 法学院 ) 0.999669027603098, 0.0003309723969020984;
    ( 环境学院 ) 0.9990889766170665, 0.0009110233829334953;
    ( 管工学院 ) 0.999726794617854, 0.00027320538214602825;
    ( 经济学院 ) 0.99954141062093, 0.0004585893790699807;
    ( 统计与数学学院 ) 0.9995703442020337, 0.0004296557979662959;
    ( 艺术与设计学院 ) 0.9997750787224472, 0.0002249212775528565;
    ( 计算机与信息工程学院 ) 1.0, 0.0;
    ( 金融学院 ) 0.9989424621048921, 0.001057537895107908;
    ( 食品学院 ) 0.998031914893617, 0.001968085106382979;
    ( 马克思主义学院 ) 1.0, 0.0;

}
probability ( 新编 | school ) {
    ( 人文与传播学院 ) 0.9962200065739016, 0.0037799934260983894;
    ( 会计学院 ) 0.995798998222653, 0.004201001777346906;
    ( 信电学院 ) 0.9921478060046189, 0.007852193995381063;
    ( 公共管理学院 ) 0.9952410279379654, 0.004758972062034601;
    ( 外国语学院 ) 0.989719781130824, 0.010280218869175925;
    ( 工商管理学院 ) 0.996591877307583, 0.003408122692416927;
    ( 旅游与城乡规划学院 ) 0.9948962899954198, 0.005103710004580253;
    ( 法学院 ) 0.9970212484278811, 0.0029787515721188852;
    ( 环境学院 ) 0.9954448830853325, 0.004555116914667477;
    ( 管工学院 ) 0.9924868519909842, 0.007513148009015778;
    ( 经济学院 ) 0.9963312849674402, 0.003668715032559846;
    ( 统计与数学学院 ) 0.9942235164940086, 0.005776483505991311;
    ( 艺术与设计学院 ) 0.9979757085020243, 0.0020242914979757085;
    ( 计算机与信息工程学院 ) 0.9984520123839009, 0.0015479876160990713;
    ( 金融学院 ) 0.9968273863146763, 0.003172613685323724;
    ( 食品学院 ) 0.9923404255319149, 0.007659574468085106;
    ( 马克思主义学院 ) 0.99609375, 0.00390625;

}
probability ( 案例 | school ) {
    ( 人文与传播学院 ) 0.9898104525035608, 0.010189547496439137;
    ( 会计学院 ) 0.9872031022782356, 0.01279689772176442;
    ( 信电学院 ) 0.9710326624876279, 0.028967337512372154;
    ( 公共管理学院 ) 0.9898102009965848, 0.010189799003415262;
    ( 外国语学院 ) 0.9684408334715083, 0.03155916652849168;
    ( 工商管理学院 ) 0.988923601249645, 0.011076398750355012;
    ( 旅游与城乡规划学院 ) 0.9819407184453314, 0.018059281554668585;
    ( 法学院 ) 0.985172436618786, 0.014827563381214007;
    ( 环境学院 ) 0.9820832068023079, 0.017916793197692075;
    ( 管工学院 ) 0.9694009971996448, 0.030599002800355168;
    ( 经济学院 ) 0.9853709988076677, 0.014629001192332385;
    ( 统计与数学学院 ) 0.9793765216976178, 0.020623478302382203;
    ( 艺术与设计学院 ) 0.98268106162843, 0.01731893837156995;
    ( 计算机与信息工程学院 ) 0.9520123839009288, 0.047987616099071206;
    ( 金融学院 ) 0.9855078140300028, 0.014492185969997259;
    ( 食品学院 ) 0.9870212765957447, 0.01297872340425532;
    ( 马克思主义学院 ) 0.9895833333333334, 0.010416666666666666;

}
probability ( 真题 | 历年, 解析, 详解, 雅思, 题 ) {
    ( 0, 0, 0, 0, 0 ) 1.0, 0.0;
    ( 0, 0, 0, 0, 1 ) 0.0, 1.0;
    ( 0, 0, 0, 1, 0 ) 0.0, 1.0;
    ( 0, 0, 0, 1, 1 ) 0.5, 0.5;
    ( 0, 0, 1, 0, 0 ) 0.0, 1.0;
    ( 0, 0, 1, 0, 1 ) 0.5, 0.5;
    ( 0, 0, 1, 1, 0 ) 0.5, 0.5;
    ( 0, 0, 1, 1, 1 ) 0.5, 0.5;
    ( 0, 1, 0, 0, 0 ) 0.0, 1.0;
    ( 0, 1, 0, 0, 1 ) 0.5, 0.5;
    ( 0, 1, 0, 1, 0 ) 0.5, 0.5;
    ( 0, 1, 0, 1, 1 ) 0.5, 0.5;
    ( 0, 1, 1, 0, 0 ) 0.5, 0.5;
    ( 0, 1, 1, 0, 1 ) 0.5, 0.5;
    ( 0, 1, 1, 1, 0 ) 0.5, 0.5;
    ( 0, 1, 1, 1, 1 ) 0.5, 0.5;
    ( 1, 0, 0, 0, 0 ) 0.0, 1.0;
    ( 1, 0, 0, 0, 1 ) 0.5, 0.5;
    ( 1, 0, 0, 1, 0 ) 0.5, 0.5;
    ( 1, 0, 0, 1, 1 ) 0.5, 0.5;
    ( 1, 0, 1, 0, 0 ) 0.5, 0.5;
    ( 1, 0, 1, 0, 1 ) 0.5, 0.5;
    ( 1, 0, 1, 1, 0 ) 0.5, 0.5;
    ( 1, 0, 1, 1, 1 ) 0.5, 0.5;
    ( 1, 1, 0, 0, 0 ) 0.5, 0.5;
    ( 1, 1, 0, 0, 1 ) 0.5, 0.5;
    ( 1, 1, 0, 1, 0 ) 0.5, 0.5;
    ( 1, 1, 0, 1, 1 ) 0.5, 0.5;
    ( 1, 1, 1, 0, 0 ) 0.5, 0.5;
    ( 1, 1, 1, 0, 1 ) 0.5, 0.5;
    ( 1, 1, 1, 1, 0 ) 0.5, 0.5;
    ( 1, 1, 1, 1, 1 ) 0.5, 0.5;

}
probability ( 研究 | 世界, 基础, 案例, 管理, 问题 ) {
    ( 0, 0, 0, 0, 0 ) 1.0, 0.0;
    ( 0, 0, 0, 0, 1 ) 0.0, 1.0;
    ( 0, 0, 0, 1, 0 ) 0.0, 1.0;
    ( 0, 0, 0, 1, 1 ) 0.5, 0.5;
    ( 0, 0, 1, 0, 0 ) 0.0, 1.0;
    ( 0, 0, 1, 0, 1 ) 0.5, 0.5;
    ( 0, 0, 1, 1, 0 ) 0.5, 0.5;
    ( 0, 0, 1, 1, 1 ) 0.5, 0.5;
    ( 0, 1, 0, 0, 0 ) 0.0, 1.0;
    ( 0, 1, 0, 0, 1 ) 0.5, 0.5;
    ( 0, 1, 0, 1, 0 ) 0.5, 0.5;
    ( 0, 1, 0, 1, 1 ) 0.5, 0.5;
    ( 0, 1, 1, 0, 0 ) 0.5, 0.5;
    ( 0, 1, 1, 0, 1 ) 0.5, 0.5;
    ( 0, 1, 1, 1, 0 ) 0.5, 0.5;
    ( 0, 1, 1, 1, 1 ) 0.5, 0.5;
    ( 1, 0, 0, 0, 0 ) 0.0, 1.0;
    ( 1, 0, 0, 0, 1 ) 0.5, 0.5;
    ( 1, 0, 0, 1, 0 ) 0.5, 0.5;
    ( 1, 0, 0, 1, 1 ) 0.5, 0.5;
    ( 1, 0, 1, 0, 0 ) 0.5, 0.5;
    ( 1, 0, 1, 0, 1 ) 0.5, 0.5;
    ( 1, 0, 1, 1, 0 ) 0.5, 0.5;
    ( 1, 0, 1, 1, 1 ) 0.5, 0.5;
    ( 1, 1, 0, 0, 0 ) 0.5, 0.5;
    ( 1, 1, 0, 0, 1 ) 0.5, 0.5;
    ( 1, 1, 0, 1, 0 ) 0.5, 0.5;
    ( 1, 1, 0, 1, 1 ) 0.5, 0.5;
    ( 1, 1, 1, 0, 0 ) 0.5, 0.5;
    ( 1, 1, 1, 0, 1 ) 0.5, 0.5;
    ( 1, 1, 1, 1, 0 ) 0.5, 0.5;
    ( 1, 1, 1, 1, 1 ) 0.5, 0.5;

}
probability ( 管理 | school ) {
    ( 人文与传播学院 ) 0.45584529418209707, 0.5441547058179029;
    ( 会计学院 ) 0.41635159153336565, 0.5836484084666343;
    ( 信电学院 ) 0.38145826459914217, 0.6185417354008578;
    ( 公共管理学院 ) 0.43883321202620235, 0.5611667879737977;
    ( 外国语学院 ) 0.4077820151439783, 0.5922179848560216;
    ( 工商管理学院 ) 0.4076256745242829, 0.5923743254757171;
    ( 旅游与城乡规划学院 ) 0.42825361512791993, 0.5717463848720801;
    ( 法学院 ) 0.3978288210763222, 0.6021711789236778;
    ( 环境学院 ) 0.3593987245672639, 0.6406012754327362;
    ( 管工学院 ) 0.3749743869954238, 0.6250256130045762;
    ( 经济学院 ) 0.43020269650554893, 0.5697973034944511;
    ( 统计与数学学院 ) 0.38869527856017566, 0.6113047214398243;
    ( 艺术与设计学院 ) 0.3776428250112461, 0.622357174988754;
    ( 计算机与信息工程学院 ) 0.3157894736842105, 0.6842105263157895;
    ( 金融学院 ) 0.39324742469938506, 0.606752575300615;
    ( 食品学院 ) 0.3950531914893617, 0.6049468085106383;
    ( 马克思主义学院 ) 0.4322916666666667, 0.5677083333333334;

}
probability ( 级 | school ) {
    ( 人文与传播学院 ) 0.9980278295168182, 0.0019721704831817686;
    ( 会计学院 ) 0.9973178219421555, 0.002682178057844563;
    ( 信电学院 ) 0.9970306829429231, 0.0029693170570768723;
    ( 公共管理学院 ) 0.9984323386148591, 0.0015676613851408096;
    ( 外国语学院 ) 0.9985077101641519, 0.001492289835848118;
    ( 工商管理学院 ) 0.9984379437659756, 0.0015620562340244249;
    ( 旅游与城乡规划学院 ) 0.9967283910227049, 0.0032716089772950336;
    ( 法学院 ) 0.997484609783544, 0.0025153902164559475;
    ( 环境学院 ) 0.9966595809292439, 0.0033404190707561495;
    ( 管工学院 ) 0.9982924663615873, 0.0017075336384126767;
    ( 经济学院 ) 0.9964688617811611, 0.0035311382188388516;
    ( 统计与数学学院 ) 0.9983768558743495, 0.0016231441256504512;
    ( 艺术与设计学院 ) 0.9982006297795771, 0.001799370220422852;
    ( 计算机与信息工程学院 ) 1.0, 0.0;
    ( 金融学院 ) 0.9976890838588383, 0.0023109161411617248;
    ( 食品学院 ) 0.9974468085106383, 0.002553191489361702;
    ( 马克思主义学院 ) 0.9986979166666666, 0.0013020833333333333;

}
probability ( 考研 | school ) {
    ( 人文与传播学院 ) 0.9960556590336365, 0.003944340966363537;
    ( 会计学院 ) 0.9876878332525448, 0.012312166747455163;
    ( 信电学院 ) 0.9900362916529198, 0.009963708347080172;
    ( 公共管理学院 ) 0.9930015116734785, 0.006998488326521471;
    ( 外国语学院 ) 0.9976786602553473, 0.002321339744652628;
    ( 工商管理学院 ) 0.9937517750639023, 0.0062482249360976995;
    ( 旅游与城乡规划学院 ) 0.992082706274946, 0.007917293725053981;
    ( 法学院 ) 0.9956311643608923, 0.004368835639107699;
    ( 环境学院 ) 0.9907379289401761, 0.009262071059823868;
    ( 管工学院 ) 0.9933747694829588, 0.006625230517041186;
    ( 经济学院 ) 0.9931670182518573, 0.006832981748142713;
    ( 统计与数学学院 ) 0.9937938606960424, 0.006206139303957608;
    ( 艺术与设计学院 ) 0.9997750787224472, 0.0002249212775528565;
    ( 计算机与信息工程学院 ) 1.0, 0.0;
    ( 金融学院 ) 0.991813873330461, 0.008186126669538992;
    ( 食品学院 ) 0.9907446808510638, 0.00925531914893617;
    ( 马克思主义学院 ) 0.9986979166666666, 0.0013020833333333333;

}
probability ( 英语 | 政治, 教程, 数学, 考研, 阅读 ) {
    ( 0, 0, 0, 0, 0 ) 1.0, 0.0;
    ( 0, 0, 0, 0, 1 ) 0.0, 1.0;
    ( 0, 0, 0, 1, 0 ) 0.0, 1.0;
    ( 0, 0, 0, 1, 1 ) 0.5, 0.5;
    ( 0, 0, 1, 0, 0 ) 0.0, 1.0;
    ( 0, 0, 1, 0, 1 ) 0.5, 0.5;
    ( 0, 0, 1, 1, 0 ) 0.5, 0.5;
    ( 0, 0, 1, 1, 1 ) 0.5, 0.5;
    ( 0, 1, 0, 0, 0 ) 0.0, 1.0;
    ( 0, 1, 0, 0, 1 ) 0.5, 0.5;
    ( 0, 1, 0, 1, 0 ) 0.5, 0.5;
    ( 0, 1, 0, 1, 1 ) 0.5, 0.5;
    ( 0, 1, 1, 0, 0 ) 0.5, 0.5;
    ( 0, 1, 1, 0, 1 ) 0.5, 0.5;
    ( 0, 1, 1, 1, 0 ) 0.5, 0.5;
    ( 0, 1, 1, 1, 1 ) 0.5, 0.5;
    ( 1, 0, 0, 0, 0 ) 0.0, 1.0;
    ( 1, 0, 0, 0, 1 ) 0.5, 0.5;
    ( 1, 0, 0, 1, 0 ) 0.5, 0.5;
    ( 1, 0, 0, 1, 1 ) 0.5, 0.5;
    ( 1, 0, 1, 0, 0 ) 0.5, 0.5;
    ( 1, 0, 1, 0, 1 ) 0.5, 0.5;
    ( 1, 0, 1, 1, 0 ) 0.5, 0.5;
    ( 1, 0, 1, 1, 1 ) 0.5, 0.5;
    ( 1, 1, 0, 0, 0 ) 0.5, 0.5;
    ( 1, 1, 0, 0, 1 ) 0.5, 0.5;
    ( 1, 1, 0, 1, 0 ) 0.5, 0.5;
    ( 1, 1, 0, 1, 1 ) 0.5, 0.5;
    ( 1, 1, 1, 0, 0 ) 0.5, 0.5;
    ( 1, 1, 1, 0, 1 ) 0.5, 0.5;
    ( 1, 1, 1, 1, 0 ) 0.5, 0.5;
    ( 1, 1, 1, 1, 1 ) 0.5, 0.5;

}
probability ( 英语六级 | school ) {
    ( 人文与传播学院 ) 0.9976443519228663, 0.002355648077133779;
    ( 会计学院 ) 0.9962837291969624, 0.0037162708030376475;
    ( 信电学院 ) 0.9948531837677335, 0.005146816232266579;
    ( 公共管理学院 ) 0.9970886288561671, 0.002911371143832932;
    ( 外国语学院 ) 0.9974575802796661, 0.002542419720333831;
    ( 工商管理学院 ) 0.9973729054245953, 0.0026270945754047147;
    ( 旅游与城乡规划学院 ) 0.9957469083295165, 0.004253091670483544;
    ( 法学院 ) 0.9984775269742503, 0.0015224730257496525;
    ( 环境学院 ) 0.9952930458548436, 0.004706954145156392;
    ( 管工学院 ) 0.9976094529062223, 0.0023905470937777475;
    ( 经济学院 ) 0.9968357332844171, 0.003164266715582867;
    ( 统计与数学学院 ) 0.9976607628777391, 0.002339237122260944;
    ( 艺术与设计学院 ) 0.9982006297795771, 0.001799370220422852;
    ( 计算机与信息工程学院 ) 1.0, 0.0;
    ( 金融学院 ) 0.9977674199992166, 0.0022325800007833613;
    ( 食品学院 ) 0.9960638297872341, 0.003936170212765958;
    ( 马克思主义学院 ) 0.9947916666666666, 0.005208333333333333;

}
probability ( 解析 | school ) {
    ( 人文与传播学院 ) 0.9989591322449874, 0.0010408677550126;
    ( 会计学院 ) 0.9975117143318791, 0.0024882856681208597;
    ( 信电学院 ) 0.9943253051798087, 0.005674694820191356;
    ( 公共管理学院 ) 0.9979284474553497, 0.0020715525446503556;
    ( 外国语学院 ) 0.9985077101641519, 0.001492289835848118;
    ( 工商管理学院 ) 0.9976569156489634, 0.0023430843510366373;
    ( 旅游与城乡规划学院 ) 0.996662958843159, 0.0033370411568409346;
    ( 法学院 ) 0.9982789435361091, 0.0017210564638909115;
    ( 环境学院 ) 0.9957485575463103, 0.004251442453689645;
    ( 管工学院 ) 0.9964483300321016, 0.0035516699678983677;
    ( 经济学院 ) 0.9975694762909291, 0.002430523709070898;
    ( 统计与数学学院 ) 0.9956079629541223, 0.004392037045877691;
    ( 艺术与设计学院 ) 0.9997750787224472, 0.0002249212775528565;
    ( 计算机与信息工程学院 ) 1.0, 0.0;
    ( 金融学院 ) 0.9962398652618385, 0.003760134738161451;
    ( 食品学院 ) 0.9945744680851064, 0.005425531914893617;
    ( 马克思主义学院 ) 0.99609375, 0.00390625;

}
probability ( 详解 | school ) {
    ( 人文与传播学院 ) 0.9983017420839269, 0.0016982579160731894;
    ( 会计学院 ) 0.9978671837130393, 0.002132816286960737;
    ( 信电学院 ) 0.9978225008248103, 0.0021774991751897063;
    ( 公共管理学院 ) 0.9974245562958401, 0.0025754437041599016;
    ( 外国语学院 ) 0.9990051401094346, 0.000994859890565412;
    ( 工商管理学院 ) 0.9974439079806873, 0.0025560920193126954;
    ( 旅游与城乡规划学院 ) 0.9984950598704443, 0.0015049401295557155;
    ( 法学院 ) 0.9982789435361091, 0.0017210564638909115;
    ( 环境学院 ) 0.9993926510780443, 0.0006073489219556636;
    ( 管工学院 ) 0.9986339730892698, 0.0013660269107301415;
    ( 经济学院 ) 0.9968815922223241, 0.003118407777675869;
    ( 统计与数学学院 ) 0.9968491908149139, 0.00315080918508617;
    ( 艺术与设计学院 ) 1.0, 0.0;
    ( 计算机与信息工程学院 ) 1.0, 0.0;
    ( 金融学院 ) 0.9980807645607301, 0.0019192354392699072;
    ( 食品学院 ) 0.9980851063829788, 0.0019148936170212765;
    ( 马克思主义学院 ) 1.0, 0.0;

}
probability ( 问题 | school ) {
    ( 人文与传播学院 ) 0.9887695847485483, 0.011230415251451737;
    ( 会计学院 ) 0.9887219259977379, 0.011278074002262078;
    ( 信电学院 ) 0.9969646981194326, 0.0030353018805674694;
    ( 公共管理学院 ) 0.9792284866468842, 0.020771513353115726;
    ( 外国语学院 ) 0.9867904714530481, 0.01320952854695186;
    ( 工商管理学院 ) 0.9861545015620562, 0.013845498437943766;
    ( 旅游与城乡规划学院 ) 0.9859320813976313, 0.014067918602368645;
    ( 法学院 ) 0.9735884027272126, 0.02641159727278745;
    ( 环境学院 ) 0.9940783480109323, 0.005921651989067719;
    ( 管工学院 ) 0.9945358923570794, 0.005464107642920566;
    ( 经济学院 ) 0.9871594973860406, 0.012840502613959462;
    ( 统计与数学学院 ) 0.9914068840406741, 0.008593115959325917;
    ( 艺术与设计学院 ) 0.9957264957264957, 0.004273504273504274;
    ( 计算机与信息工程学院 ) 0.9938080495356038, 0.006191950464396285;
    ( 金融学院 ) 0.9903646547334612, 0.009635345266538718;
    ( 食品学院 ) 0.9958510638297873, 0.0041489361702127655;
    ( 马克思主义学院 ) 0.9583333333333334, 0.041666666666666664;

}
probability ( 阅读 | school ) {
    ( 人文与传播学院 ) 0.9972608743289142, 0.0027391256710857896;
    ( 会计学院 ) 0.9950880594603329, 0.004911940539667151;
    ( 信电学院 ) 0.9967667436489608, 0.003233256351039261;
    ( 公共管理学院 ) 0.9966967135098819, 0.0033032864901181343;
    ( 外国语学院 ) 0.9987287901398331, 0.0012712098601669155;
    ( 工商管理学院 ) 0.9970888952002273, 0.0029111047997727917;
    ( 旅游与城乡规划学院 ) 0.9958777726886082, 0.004122227311391742;
    ( 法学院 ) 0.9986099159330112, 0.0013900840669888131;
    ( 环境学院 ) 0.9989371393865776, 0.0010628606134224113;
    ( 管工学院 ) 0.9977460555972952, 0.002253944402704733;
    ( 经济学院 ) 0.9974318994772081, 0.002568100522791892;
    ( 统计与数学学院 ) 0.9968014512818064, 0.003198548718193536;
    ( 艺术与设计学院 ) 0.9997750787224472, 0.0002249212775528565;
    ( 计算机与信息工程学院 ) 1.0, 0.0;
    ( 金融学院 ) 0.9957306803493792, 0.004269319650620814;
    ( 食品学院 ) 0.9954255319148936, 0.004574468085106383;
    ( 马克思主义学院 ) 0.9973958333333334, 0.0026041666666666665;

}
probability ( 雅思 | school ) {
    ( 人文与传播学院 ) 0.9976443519228663, 0.002355648077133779;
    ( 会计学院 ) 0.9952173210534819, 0.004782678946518016;
    ( 信电学院 ) 0.9978884856483009, 0.002111514351699109;
    ( 公共管理学院 ) 0.9949610884049045, 0.005038911595095459;
    ( 外国语学院 ) 0.9941413806444481, 0.005858619355551871;
    ( 工商管理学院 ) 0.9946038057370066, 0.005396194262993468;
    ( 旅游与城乡规划学院 ) 0.9950925865340574, 0.00490741346594255;
    ( 法学院 ) 0.9953001919639902, 0.0046998080360097965;
    ( 环境学院 ) 0.9954448830853325, 0.004555116914667477;
    ( 管工学院 ) 0.9963800286865652, 0.003619971313434875;
    ( 经济学院 ) 0.9944969274511603, 0.005503072548839769;
    ( 统计与数学学院 ) 0.9971833675466654, 0.0028166324533346063;
    ( 艺术与设计学院 ) 0.9986504723346828, 0.001349527665317139;
    ( 计算机与信息工程学院 ) 1.0, 0.0;
    ( 金融学院 ) 0.9942422936821903, 0.005757706317809722;
    ( 食品学院 ) 0.9963829787234042, 0.003617021276595745;
    ( 马克思主义学院 ) 0.9986979166666666, 0.0013020833333333333;

}
probability ( 题 | school ) {
    ( 人文与传播学院 ) 0.9975347868960228, 0.0024652131039772105;
    ( 会计学院 ) 0.994991113265471, 0.005008886734529003;
    ( 信电学院 ) 0.9958429561200923, 0.004157043879907622;
    ( 公共管理学院 ) 0.9964727618834331, 0.0035272381165668215;
    ( 外国语学院 ) 0.9919305808876361, 0.008069419112363897;
    ( 工商管理学院 ) 0.9970888952002273, 0.0029111047997727917;
    ( 旅游与城乡规划学院 ) 0.9971864162795263, 0.002813583720473729;
    ( 法学院 ) 0.9974184153041636, 0.0025815846958363673;
    ( 环境学院 ) 0.998177953234133, 0.0018220467658669906;
    ( 管工学院 ) 0.9968581381053206, 0.003141861894679325;
    ( 经济学院 ) 0.9949096578923232, 0.005090342107676786;
    ( 统计与数学学院 ) 0.9969446698811285, 0.0030553301188714376;
    ( 艺术与设计学院 ) 0.9993252361673415, 0.0006747638326585695;
    ( 计算机与信息工程学院 ) 1.0, 0.0;
    ( 金融学院 ) 0.9927539070150013, 0.0072460929849986295;
    ( 食品学院 ) 0.995904255319149, 0.004095744680851064;
    ( 马克思主义学院 ) 1.0, 0.0;

}
